Z!d d!
Z"d"d#
Z#d$d%
)&zG
Testing for export functions of decision trees (sklearn.tree.export).
finditer
search)
dedent)
RandomStateN)
is_classifier)
DecisionTreeClassifier
DecisionTreeRegressor)
GradientBoostingClassifier)
export_graphviz
	plot_tree
export_text)
StringIO)
NotFittedError
)"Nr
gini
	max_depth
min_samples_split
	criterion
random_state
out_filea
digraph Tree {
node [shape=box, fontname="helvetica"] ;
edge [fontname="helvetica"] ;
0 [label="X[0] <= 0.0\ngini = 0.5\nsamples = 6\nvalue = [3, 3]"] ;
1 [label="gini = 0.0\nsamples = 3\nvalue = [3, 0]"] ;
0 -> 1 [labeldistance=2.5, labelangle=45, headlabel="True"] ;
2 [label="gini = 0.0\nsamples = 3\nvalue = [0, 3]"] ;
0 -> 2 [labeldistance=2.5, labelangle=-45, headlabel="False"] ;
feature0Z
feature1)
feature_namesr
digraph Tree {
node [shape=box, fontname="helvetica"] ;
edge [fontname="helvetica"] ;
0 [label="feature0 <= 0.0\ngini = 0.5\nsamples = 6\nvalue = [3, 3]"] ;
1 [label="gini = 0.0\nsamples = 3\nvalue = [3, 0]"] ;
0 -> 1 [labeldistance=2.5, labelangle=45, headlabel="True"] ;
2 [label="gini = 0.0\nsamples = 3\nvalue = [0, 3]"] ;
0 -> 2 [labeldistance=2.5, labelangle=-45, headlabel="False"] ;
yesZ
class_namesr
digraph Tree {
node [shape=box, fontname="helvetica"] ;
edge [fontname="helvetica"] ;
0 [label="X[0] <= 0.0\ngini = 0.5\nsamples = 6\nvalue = [3, 3]\nclass = yes"] ;
1 [label="gini = 0.0\nsamples = 3\nvalue = [3, 0]\nclass = yes"] ;
0 -> 1 [labeldistance=2.5, labelangle=45, headlabel="True"] ;
2 [label="gini = 0.0\nsamples = 3\nvalue = [0, 3]\nclass = no"] ;
0 -> 2 [labeldistance=2.5, labelangle=-45, headlabel="False"] ;
}TFZ
sans)
filled
impurity
proportionZ
special_characters
roundedr
fontnamea
digraph Tree {
node [shape=box, style="filled, rounded", color="black", fontname="sans"] ;
edge [fontname="sans"] ;
0 [label=<X<SUB>0</SUB> &le; 0.0<br/>samples = 100.0%<br/>value = [0.5, 0.5]>, fillcolor="#ffffff"] ;
1 [label=<samples = 50.0%<br/>value = [1.0, 0.0]>, fillcolor="#e58139"] ;
0 -> 1 [labeldistance=2.5, labelangle=45, headlabel="True"] ;
2 [label=<samples = 50.0%<br/>value = [0.0, 1.0]>, fillcolor="#399de5"] ;
0 -> 2 [labeldistance=2.5, labelangle=-45, headlabel="False"] ;
digraph Tree {
node [shape=box, fontname="helvetica"] ;
edge [fontname="helvetica"] ;
0 [label="X[0] <= 0.0\ngini = 0.5\nsamples = 6\nvalue = [3, 3]\nclass = y[0]"] ;
1 [label="(...)"] ;
0 -> 1 ;
2 [label="(...)"] ;
0 -> 2 ;
node_idsa;
digraph Tree {
node [shape=box, style="filled", color="black", fontname="helvetica"] ;
edge [fontname="helvetica"] ;
0 [label="node #0\nX[0] <= 0.0\ngini = 0.5\nsamples = 6\nvalue = [3, 3]", fillcolor="#ffffff"] ;
1 [label="(...)", fillcolor="#C0C0C0"] ;
0 -> 1 ;
2 [label="(...)", fillcolor="#C0C0C0"] ;
0 -> 2 ;
sample_weight)
digraph Tree {
node [shape=box, style="filled", color="black", fontname="helvetica"] ;
edge [fontname="helvetica"] ;
0 [label="X[0] <= 0.0\nsamples = 6\nvalue = [[3.0, 1.5, 0.0]\n[3.0, 1.0, 0.5]]", fillcolor="#ffffff"] ;
1 [label="samples = 3\nvalue = [[3, 0, 0]\n[3, 0, 0]]", fillcolor="#e58139"] ;
0 -> 1 [labeldistance=2.5, labelangle=45, headlabel="True"] ;
2 [label="X[0] <= 1.5\nsamples = 3\nvalue = [[0.0, 1.5, 0.0]\n[0.0, 1.0, 0.5]]", fillcolor="#f1bd97"] ;
0 -> 2 [labeldistance=2.5, labelangle=-45, headlabel="False"] ;
3 [label="samples = 2\nvalue = [[0, 1, 0]\n[0, 1, 0]]", fillcolor="#e58139"] ;
2 -> 3 ;
4 [label="samples = 1\nvalue = [[0.0, 0.5, 0.0]\n[0.0, 0.0, 0.5]]", fillcolor="#e58139"] ;
2 -> 4 ;
squared_error)
leaves_parallelr
rotater"
digraph Tree {
node [shape=box, style="filled, rounded", color="black", fontname="sans"] ;
graph [ranksep=equally, splines=polyline] ;
edge [fontname="sans"] ;
rankdir=LR ;
0 [label="X[0] <= 0.0\nsquared_error = 1.0\nsamples = 6\nvalue = 0.0", fillcolor="#f2c09c"] ;
1 [label="squared_error = 0.0\nsamples = 3\nvalue = -1.0", fillcolor="#ffffff"] ;
0 -> 1 [labeldistance=2.5, labelangle=-45, headlabel="True"] ;
2 [label="squared_error = 0.0\nsamples = 3\nvalue = 1.0", fillcolor="#e58139"] ;
0 -> 2 [labeldistance=2.5, labelangle=45, headlabel="False"] ;
{rank=same ; 0} ;
{rank=same ; 1; 2} ;
digraph Tree {
node [shape=box, style="filled", color="black", fontname="helvetica"] ;
edge [fontname="helvetica"] ;
0 [label="gini = 0.0\nsamples = 6\nvalue = 6.0", fillcolor="#ffffff"] ;
})	r
y_degraded)
clfZ	contents1Z	contents2
D/usr/lib64/python3.9/site-packages/sklearn/tree/tests/test_export.py
test_graphviz_toy
z?Length of feature_names, 1 does not match number of features, 2
match
z?Length of feature_names, 3 does not match number of features, 2)
is not an estimator instance)
should be greater or equalr
	precisionz
should be an integer
pytest
raisesr
ValueError
	TypeErrorZ
tree_
IndexError)
messager-
test_graphviz_errors
friedman_mser
n_estimatorsr
\[.*?samples.*?\])
estimators_r
getvalue)
dot_dataZ	estimator
findingr-
test_friedman_mse_in_graphviz#
qpqVd
sizer@
value = \d+\.\d+z
gini = \d+\.\d+z
friedman_mse = \d+\.\d+z
<= \d+\.\d+)
zipZ
random_sampleZ
randintr
rng_regZ
rng_clfr'
patternr-
test_precision2
z max_depth bust be >= 0, given -1r0
z,feature_names must contain 2 elements, got 1r2
decimals must be >= 0, given -1)
decimalsz
spacing must be > 0, given 0)
spacing)
err_msgr-
test_export_text_errors^
d	d	g
d	d	g
d	d	g
d	d	g
d	d	g
    |--- feature_1 <= 0.00
    |   |--- class: -1
    |--- feature_1 >  0.00
    |   |--- class: 1
    zX
    |--- b <= 0.00
    |   |--- class: -1
    |--- b >  0.00
    |   |--- class: 1
    z
    |--- feature_1 <= 0.00
    |   |--- weights: [3.00, 0.00] class: -1
    |--- feature_1 >  0.00
    |   |--- weights: [0.00, 3.00] class: 1
    z\
    |- feature_1 <= 0.00
    | |- class: -1
    |- feature_1 >  0.00
    | |- class: 1
    r
    |--- feature_1 <= 0.00
    |   |--- class: -1
    |--- feature_1 >  0.00
    |   |--- truncated branch of depth 2
    zy
    |--- feature_1 <= 0.0
    |   |--- value: [-1.0, -1.0]
    |--- feature_1 >  0.0
    |   |--- value: [1.0, 1.0]
    zq
    |--- first <= 0.0
    |   |--- value: [-1.0, -1.0]
    |--- first >  0.0
    |   |--- value: [1.0, 1.0]
    )
lstripr
expected_reportZ
X_lZ
y_lZ
X_moZ
y_moZ
regZ
X_singler-
test_export_textp
entropyr
first feat
sepal_widthr3
pyplotr,
nodesr-
test_plot_tree_entropy
test_plot_tree_gini
test_not_fitted_tree
__doc__
textwrapr
numpy.randomr
sklearn.baser
sklearn.treer
sklearn.ensembler	
sklearn.exceptionsr
<module>
